<?xml version="1.0"?>
<!DOCTYPE BIF [
    <!ELEMENT BIF ( NETWORK )*>
      <!ATTLIST BIF VERSION CDATA #REQUIRED>
    <!ELEMENT NETWORK ( NAME, ( PROPERTY | VARIABLE | DEFINITION )* )>
    <!ELEMENT NAME (#PCDATA)>
    <!ELEMENT VARIABLE ( NAME, ( OUTCOME | PROPERTY )* ) >
      <!ATTLIST VARIABLE TYPE (nature|decision|utility) "nature">
    <!ELEMENT OUTCOME (#PCDATA)>
    <!ELEMENT DEFINITION ( FOR | GIVEN | TABLE | PROPERTY )* >
    <!ELEMENT FOR (#PCDATA)>
    <!ELEMENT GIVEN (#PCDATA)>
    <!ELEMENT TABLE (#PCDATA)>
    <!ELEMENT PROPERTY (#PCDATA)>
]>

<BIF VERSION="0.3">
<NETWORK>
<NAME>AustralianDisc-NaiveBayes</NAME>

<VARIABLE TYPE="nature">
    <NAME>A1</NAME>
    <OUTCOME>[0.5-1.0]</OUTCOME>
    <OUTCOME>[0.0-0.5)</OUTCOME>
    <PROPERTY>position = (100, 200)</PROPERTY>
</VARIABLE>

<VARIABLE TYPE="nature">
    <NAME>A2</NAME>
    <OUTCOME>[13.75-38.96)</OUTCOME>
    <OUTCOME>[38.96-80.25]</OUTCOME>
    <PROPERTY>position = (200, 200)</PROPERTY>
</VARIABLE>

<VARIABLE TYPE="nature">
    <NAME>A3</NAME>
    <OUTCOME>[4.2075-28.0]</OUTCOME>
    <OUTCOME>[0.0-4.2075)</OUTCOME>
    <PROPERTY>position = (300, 200)</PROPERTY>
</VARIABLE>

<VARIABLE TYPE="nature">
    <NAME>A4</NAME>
    <OUTCOME>[1.5-3.0]</OUTCOME>
    <OUTCOME>[1.0-1.5)</OUTCOME>
    <PROPERTY>position = (400, 200)</PROPERTY>
</VARIABLE>

<VARIABLE TYPE="nature">
    <NAME>A5</NAME>
    <OUTCOME>[1.0-8.5)</OUTCOME>
    <OUTCOME>[8.5-14.0]</OUTCOME>
    <PROPERTY>position = (500, 200)</PROPERTY>
</VARIABLE>

<VARIABLE TYPE="nature">
    <NAME>A6</NAME>
    <OUTCOME>[1.5-7.5)</OUTCOME>
    <OUTCOME>[7.5-9.0]</OUTCOME>
    <OUTCOME>[1.0-1.5)</OUTCOME>
    <PROPERTY>position = (600, 200)</PROPERTY>
</VARIABLE>

<VARIABLE TYPE="nature">
    <NAME>A7</NAME>
    <OUTCOME>[1.1875-28.5]</OUTCOME>
    <OUTCOME>[0.0-1.1875)</OUTCOME>
    <PROPERTY>position = (700, 200)</PROPERTY>
</VARIABLE>

<VARIABLE TYPE="nature">
    <NAME>A8</NAME>
    <OUTCOME>[0.0-0.5)</OUTCOME>
    <OUTCOME>[0.5-1.0]</OUTCOME>
    <PROPERTY>position = (800, 200)</PROPERTY>
</VARIABLE>

<VARIABLE TYPE="nature">
    <NAME>A9</NAME>
    <OUTCOME>[0.0-0.5)</OUTCOME>
    <OUTCOME>[0.5-1.0]</OUTCOME>
    <PROPERTY>position = (900, 200)</PROPERTY>
</VARIABLE>

<VARIABLE TYPE="nature">
    <NAME>A10</NAME>
    <OUTCOME>[0.0-2.5)</OUTCOME>
    <OUTCOME>[2.5-67.0]</OUTCOME>
    <PROPERTY>position = (1000, 200)</PROPERTY>
</VARIABLE>

<VARIABLE TYPE="nature">
    <NAME>A11</NAME>
    <OUTCOME>[0.5-1.0]</OUTCOME>
    <OUTCOME>[0.0-0.5)</OUTCOME>
    <PROPERTY>position = (1100, 200)</PROPERTY>
</VARIABLE>

<VARIABLE TYPE="nature">
    <NAME>A12</NAME>
    <OUTCOME>[1.5-3.0]</OUTCOME>
    <OUTCOME>[1.0-1.5)</OUTCOME>
    <PROPERTY>position = (1200, 200)</PROPERTY>
</VARIABLE>

<VARIABLE TYPE="nature">
    <NAME>A13</NAME>
    <OUTCOME>[99.5-2000.0]</OUTCOME>
    <OUTCOME>[0.0-99.5)</OUTCOME>
    <PROPERTY>position = (1300, 200)</PROPERTY>
</VARIABLE>

<VARIABLE TYPE="nature">
    <NAME>A14</NAME>
    <OUTCOME>[493.0-100001.0]</OUTCOME>
    <OUTCOME>[1.0-493.0)</OUTCOME>
    <PROPERTY>position = (1400, 200)</PROPERTY>
</VARIABLE>

<VARIABLE TYPE="nature">
    <NAME>A15</NAME>
    <OUTCOME>A</OUTCOME>
    <OUTCOME>B</OUTCOME>
    <PROPERTY>position = (750, 50)</PROPERTY>
</VARIABLE>

<DEFINITION>
    <FOR>A15</FOR>
    <TABLE>
        0.554755 0.445245
    </TABLE>
</DEFINITION>

<DEFINITION>
    <FOR>A1</FOR>
    <GIVEN>A15</GIVEN>
    <TABLE>
        0.683117 0.316883
        0.669903 0.330097
    </TABLE>
</DEFINITION>

<DEFINITION>
    <FOR>A2</FOR>
    <GIVEN>A15</GIVEN>
    <TABLE>
        0.833766 0.166234
        0.682848 0.317152
    </TABLE>
</DEFINITION>

<DEFINITION>
    <FOR>A3</FOR>
    <GIVEN>A15</GIVEN>
    <TABLE>
        0.288312 0.711688
        0.521036 0.478964
    </TABLE>
</DEFINITION>

<DEFINITION>
    <FOR>A4</FOR>
    <GIVEN>A15</GIVEN>
    <TABLE>
        0.690909 0.309091
        0.851133 0.148867
    </TABLE>
</DEFINITION>

<DEFINITION>
    <FOR>A5</FOR>
    <GIVEN>A15</GIVEN>
    <TABLE>
        0.768831 0.231169
        0.475728 0.524272
    </TABLE>
</DEFINITION>

<DEFINITION>
    <FOR>A6</FOR>
    <GIVEN>A15</GIVEN>
    <TABLE>
        0.730570 0.139896 0.129534
        0.667742 0.303226 0.029032
    </TABLE>
</DEFINITION>

<DEFINITION>
    <FOR>A7</FOR>
    <GIVEN>A15</GIVEN>
    <TABLE>
        0.288312 0.711688
        0.673139 0.326861
    </TABLE>
</DEFINITION>

<DEFINITION>
    <FOR>A8</FOR>
    <GIVEN>A15</GIVEN>
    <TABLE>
        0.797403 0.202597
        0.077670 0.922330
    </TABLE>
</DEFINITION>

<DEFINITION>
    <FOR>A9</FOR>
    <GIVEN>A15</GIVEN>
    <TABLE>
        0.774026 0.225974
        0.320388 0.679612
    </TABLE>
</DEFINITION>

<DEFINITION>
    <FOR>A10</FOR>
    <GIVEN>A15</GIVEN>
    <TABLE>
        0.935065 0.064935
        0.495146 0.504854
    </TABLE>
</DEFINITION>

<DEFINITION>
    <FOR>A11</FOR>
    <GIVEN>A15</GIVEN>
    <TABLE>
        0.444156 0.555844
        0.475728 0.524272
    </TABLE>
</DEFINITION>

<DEFINITION>
    <FOR>A12</FOR>
    <GIVEN>A15</GIVEN>
    <TABLE>
        0.888312 0.111688
        0.948220 0.051780
    </TABLE>
</DEFINITION>

<DEFINITION>
    <FOR>A13</FOR>
    <GIVEN>A15</GIVEN>
    <TABLE>
        0.784416 0.215584
        0.576052 0.423948
    </TABLE>
</DEFINITION>

<DEFINITION>
    <FOR>A14</FOR>
    <GIVEN>A15</GIVEN>
    <TABLE>
        0.090909 0.909091
        0.417476 0.582524
    </TABLE>
</DEFINITION>

</NETWORK>
</BIF>
