<?xml version="1.0"?>
<!-- DTD for the XMLBIF 0.3 format -->
<!DOCTYPE BIF [
	<!ELEMENT BIF ( NETWORK )*>
	      <!ATTLIST BIF VERSION CDATA #REQUIRED>
	<!ELEMENT NETWORK ( NAME, ( PROPERTY | VARIABLE | DEFINITION )* )>
	<!ELEMENT NAME (#PCDATA)>
	<!ELEMENT VARIABLE ( NAME, ( OUTCOME |  PROPERTY )* ) >
	      <!ATTLIST VARIABLE TYPE (nature|decision|utility) "nature">
	<!ELEMENT OUTCOME (#PCDATA)>
	<!ELEMENT DEFINITION ( FOR | GIVEN | TABLE | PROPERTY )* >
	<!ELEMENT FOR (#PCDATA)>
	<!ELEMENT GIVEN (#PCDATA)>
	<!ELEMENT TABLE (#PCDATA)>
	<!ELEMENT PROPERTY (#PCDATA)>
]>


<BIF VERSION="0.3">
<NETWORK>
<NAME>AustralianDisc-weka.filters.unsupervised.attribute.ReplaceMissingValues</NAME>
<VARIABLE TYPE="nature">
	<NAME>A1</NAME>
	<OUTCOME>[0.5-1.0]</OUTCOME>
	<OUTCOME>[0.0-0.5)</OUTCOME>
	<PROPERTY>position = (147,780)</PROPERTY>
</VARIABLE>
<VARIABLE TYPE="nature">
	<NAME>A2</NAME>
	<OUTCOME>[13.75-38.96)</OUTCOME>
	<OUTCOME>[38.96-80.25]</OUTCOME>
	<PROPERTY>position = (441,1092)</PROPERTY>
</VARIABLE>
<VARIABLE TYPE="nature">
	<NAME>A3</NAME>
	<OUTCOME>[4.2075-28.0]</OUTCOME>
	<OUTCOME>[0.0-4.2075)</OUTCOME>
	<PROPERTY>position = (196,780)</PROPERTY>
</VARIABLE>
<VARIABLE TYPE="nature">
	<NAME>A4</NAME>
	<OUTCOME>[1.5-3.0]</OUTCOME>
	<OUTCOME>[1.0-1.5)</OUTCOME>
	<PROPERTY>position = (343,780)</PROPERTY>
</VARIABLE>
<VARIABLE TYPE="nature">
	<NAME>A5</NAME>
	<OUTCOME>[1.0-8.5)</OUTCOME>
	<OUTCOME>[8.5-14.0]</OUTCOME>
	<PROPERTY>position = (539,1404)</PROPERTY>
</VARIABLE>
<VARIABLE TYPE="nature">
	<NAME>A6</NAME>
	<OUTCOME>[1.5-7.5)</OUTCOME>
	<OUTCOME>[7.5-9.0]</OUTCOME>
	<OUTCOME>[1.0-1.5)</OUTCOME>
	<PROPERTY>position = (490,1248)</PROPERTY>
</VARIABLE>
<VARIABLE TYPE="nature">
	<NAME>A7</NAME>
	<OUTCOME>[1.1875-28.5]</OUTCOME>
	<OUTCOME>[0.0-1.1875)</OUTCOME>
	<PROPERTY>position = (294,624)</PROPERTY>
</VARIABLE>
<VARIABLE TYPE="nature">
	<NAME>A8</NAME>
	<OUTCOME>[0.0-0.5)</OUTCOME>
	<OUTCOME>[0.5-1.0]</OUTCOME>
	<PROPERTY>position = (245,468)</PROPERTY>
</VARIABLE>
<VARIABLE TYPE="nature">
	<NAME>A9</NAME>
	<OUTCOME>[0.0-0.5)</OUTCOME>
	<OUTCOME>[0.5-1.0]</OUTCOME>
	<PROPERTY>position = (196,156)</PROPERTY>
</VARIABLE>
<VARIABLE TYPE="nature">
	<NAME>A10</NAME>
	<OUTCOME>[0.0-2.5)</OUTCOME>
	<OUTCOME>[2.5-67.0]</OUTCOME>
	<PROPERTY>position = (196,312)</PROPERTY>
</VARIABLE>
<VARIABLE TYPE="nature">
	<NAME>A11</NAME>
	<OUTCOME>[0.5-1.0]</OUTCOME>
	<OUTCOME>[0.0-0.5)</OUTCOME>
	<PROPERTY>position = (294,780)</PROPERTY>
</VARIABLE>
<VARIABLE TYPE="nature">
	<NAME>A12</NAME>
	<OUTCOME>[1.5-3.0]</OUTCOME>
	<OUTCOME>[1.0-1.5)</OUTCOME>
	<PROPERTY>position = (98,312)</PROPERTY>
</VARIABLE>
<VARIABLE TYPE="nature">
	<NAME>A13</NAME>
	<OUTCOME>[99.5-2000.0]</OUTCOME>
	<OUTCOME>[0.0-99.5)</OUTCOME>
	<PROPERTY>position = (343,936)</PROPERTY>
</VARIABLE>
<VARIABLE TYPE="nature">
	<NAME>A14</NAME>
	<OUTCOME>[493.0-100001.0]</OUTCOME>
	<OUTCOME>[1.0-493.0)</OUTCOME>
	<PROPERTY>position = (49,468)</PROPERTY>
</VARIABLE>
<VARIABLE TYPE="nature">
	<NAME>A15</NAME>
	<OUTCOME>A</OUTCOME>
	<OUTCOME>B</OUTCOME>
	<PROPERTY>position = (294,0)</PROPERTY>
</VARIABLE>
<DEFINITION>
<FOR>A1</FOR>
	<GIVEN>A15</GIVEN>
	<GIVEN>A7</GIVEN>
<TABLE>
0.6891891891891891 0.3108108108108108 
0.6806569343065694 0.3193430656934307 
0.7235576923076923 0.2764423076923077 
0.5594059405940595 0.4405940594059406 
</TABLE>
</DEFINITION>
<DEFINITION>
<FOR>A2</FOR>
	<GIVEN>A15</GIVEN>
	<GIVEN>A13</GIVEN>
<TABLE>
0.859271523178808 0.14072847682119205 
0.7409638554216867 0.25903614457831325 
0.7612359550561798 0.23876404494382023 
0.5763358778625954 0.42366412213740456 
</TABLE>
</DEFINITION>
<DEFINITION>
<FOR>A3</FOR>
	<GIVEN>A15</GIVEN>
	<GIVEN>A7</GIVEN>
<TABLE>
0.33783783783783783 0.6621621621621622 
0.26824817518248173 0.7317518248175182 
0.59375 0.40625 
0.3712871287128713 0.6287128712871287 
</TABLE>
</DEFINITION>
<DEFINITION>
<FOR>A4</FOR>
	<GIVEN>A15</GIVEN>
	<GIVEN>A7</GIVEN>
<TABLE>
0.5900900900900901 0.4099099099099099 
0.7317518248175182 0.26824817518248173 
0.8774038461538461 0.12259615384615384 
0.7970297029702971 0.20297029702970298 
</TABLE>
</DEFINITION>
<DEFINITION>
<FOR>A5</FOR>
	<GIVEN>A15</GIVEN>
	<GIVEN>A6</GIVEN>
<TABLE>
0.7535460992907801 0.24645390070921985 
0.6388888888888888 0.3611111111111111 
0.99 0.01 
0.5531400966183575 0.4468599033816425 
0.2712765957446808 0.7287234042553191 
0.8333333333333334 0.16666666666666666 
</TABLE>
</DEFINITION>
<DEFINITION>
<FOR>A6</FOR>
	<GIVEN>A15</GIVEN>
	<GIVEN>A2</GIVEN>
<TABLE>
0.7573872472783826 0.13530326594090203 0.10730948678071539 
0.5968992248062015 0.16279069767441862 0.24031007751937986 
0.7021276595744681 0.2907801418439716 0.0070921985815602835 
0.5939086294416244 0.3299492385786802 0.07614213197969544 
</TABLE>
</DEFINITION>
<DEFINITION>
<FOR>A7</FOR>
	<GIVEN>A15</GIVEN>
	<GIVEN>A8</GIVEN>
<TABLE>
0.249185667752443 0.750814332247557 
0.4423076923076923 0.5576923076923077 
0.3958333333333333 0.6041666666666666 
0.6964912280701754 0.30350877192982456 
</TABLE>
</DEFINITION>
<DEFINITION>
<FOR>A8</FOR>
	<GIVEN>A15</GIVEN>
	<GIVEN>A10</GIVEN>
<TABLE>
0.8180555555555555 0.18194444444444444 
0.5 0.5 
0.15359477124183007 0.8464052287581699 
0.003205128205128205 0.9967948717948718 
</TABLE>
</DEFINITION>
<DEFINITION>
<FOR>A9</FOR>
	<GIVEN>A15</GIVEN>
<TABLE>
0.7747395833333334 0.22526041666666666 
0.3198051948051948 0.6801948051948052 
</TABLE>
</DEFINITION>
<DEFINITION>
<FOR>A10</FOR>
	<GIVEN>A15</GIVEN>
	<GIVEN>A9</GIVEN>
<TABLE>
0.9983221476510067 0.0016778523489932886 
0.7183908045977011 0.28160919540229884 
0.9949494949494949 0.005050505050505051 
0.25952380952380955 0.7404761904761905 
</TABLE>
</DEFINITION>
<DEFINITION>
<FOR>A11</FOR>
	<GIVEN>A15</GIVEN>
	<GIVEN>A7</GIVEN>
<TABLE>
0.6261261261261262 0.3738738738738739 
0.3704379562043796 0.6295620437956204 
0.49278846153846156 0.5072115384615384 
0.4405940594059406 0.5594059405940595 
</TABLE>
</DEFINITION>
<DEFINITION>
<FOR>A12</FOR>
	<GIVEN>A15</GIVEN>
	<GIVEN>A9</GIVEN>
<TABLE>
0.860738255033557 0.13926174496644295 
0.9827586206896551 0.017241379310344827 
0.8636363636363636 0.13636363636363635 
0.9880952380952381 0.011904761904761904 
</TABLE>
</DEFINITION>
<DEFINITION>
<FOR>A13</FOR>
	<GIVEN>A15</GIVEN>
	<GIVEN>A3</GIVEN>
<TABLE>
0.6351351351351351 0.36486486486486486 
0.8448905109489051 0.1551094890510949 
0.40683229813664595 0.593167701863354 
0.7601351351351351 0.23986486486486486 
</TABLE>
</DEFINITION>
<DEFINITION>
<FOR>A14</FOR>
	<GIVEN>A15</GIVEN>
	<GIVEN>A12</GIVEN>
<TABLE>
0.10087719298245613 0.8991228070175439 
0.011627906976744186 0.9883720930232558 
0.43856655290102387 0.5614334470989761 
0.03125 0.96875 
</TABLE>
</DEFINITION>
<DEFINITION>
<FOR>A15</FOR>
<TABLE>
0.5549927641099855 0.44500723589001445 
</TABLE>
</DEFINITION>
</NETWORK>
</BIF>
