<?xml version="1.0"?>
<!-- DTD for the XMLBIF 0.3 format -->
<!DOCTYPE BIF [
	<!ELEMENT BIF ( NETWORK )*>
	      <!ATTLIST BIF VERSION CDATA #REQUIRED>
	<!ELEMENT NETWORK ( NAME, ( PROPERTY | VARIABLE | DEFINITION )* )>
	<!ELEMENT NAME (#PCDATA)>
	<!ELEMENT VARIABLE ( NAME, ( OUTCOME |  PROPERTY )* ) >
	      <!ATTLIST VARIABLE TYPE (nature|decision|utility) "nature">
	<!ELEMENT OUTCOME (#PCDATA)>
	<!ELEMENT DEFINITION ( FOR | GIVEN | TABLE | PROPERTY )* >
	<!ELEMENT FOR (#PCDATA)>
	<!ELEMENT GIVEN (#PCDATA)>
	<!ELEMENT TABLE (#PCDATA)>
	<!ELEMENT PROPERTY (#PCDATA)>
]>


<BIF VERSION="0.3">
<NETWORK>
<NAME>chess_data_3196-weka.filters.unsupervised.attribute.ReplaceMissingValues</NAME>
<VARIABLE TYPE="nature">
	<NAME>x1</NAME>
	<OUTCOME>f</OUTCOME>
	<OUTCOME>t</OUTCOME>
	<PROPERTY>position = (1755,1404)</PROPERTY>
</VARIABLE>
<VARIABLE TYPE="nature">
	<NAME>x2</NAME>
	<OUTCOME>f</OUTCOME>
	<OUTCOME>t</OUTCOME>
	<PROPERTY>position = (520,624)</PROPERTY>
</VARIABLE>
<VARIABLE TYPE="nature">
	<NAME>x3</NAME>
	<OUTCOME>f</OUTCOME>
	<OUTCOME>t</OUTCOME>
	<PROPERTY>position = (715,1092)</PROPERTY>
</VARIABLE>
<VARIABLE TYPE="nature">
	<NAME>x4</NAME>
	<OUTCOME>f</OUTCOME>
	<OUTCOME>t</OUTCOME>
	<PROPERTY>position = (650,1092)</PROPERTY>
</VARIABLE>
<VARIABLE TYPE="nature">
	<NAME>x5</NAME>
	<OUTCOME>f</OUTCOME>
	<OUTCOME>t</OUTCOME>
	<PROPERTY>position = (130,624)</PROPERTY>
</VARIABLE>
<VARIABLE TYPE="nature">
	<NAME>x6</NAME>
	<OUTCOME>f</OUTCOME>
	<OUTCOME>t</OUTCOME>
	<PROPERTY>position = (2210,1872)</PROPERTY>
</VARIABLE>
<VARIABLE TYPE="nature">
	<NAME>x7</NAME>
	<OUTCOME>f</OUTCOME>
	<OUTCOME>t</OUTCOME>
	<PROPERTY>position = (325,468)</PROPERTY>
</VARIABLE>
<VARIABLE TYPE="nature">
	<NAME>x8</NAME>
	<OUTCOME>f</OUTCOME>
	<OUTCOME>t</OUTCOME>
	<PROPERTY>position = (390,312)</PROPERTY>
</VARIABLE>
<VARIABLE TYPE="nature">
	<NAME>x9</NAME>
	<OUTCOME>f</OUTCOME>
	<OUTCOME>t</OUTCOME>
	<PROPERTY>position = (845,156)</PROPERTY>
</VARIABLE>
<VARIABLE TYPE="nature">
	<NAME>x10</NAME>
	<OUTCOME>f</OUTCOME>
	<OUTCOME>t</OUTCOME>
	<PROPERTY>position = (1300,468)</PROPERTY>
</VARIABLE>
<VARIABLE TYPE="nature">
	<NAME>x11</NAME>
	<OUTCOME>f</OUTCOME>
	<OUTCOME>t</OUTCOME>
	<PROPERTY>position = (1885,1248)</PROPERTY>
</VARIABLE>
<VARIABLE TYPE="nature">
	<NAME>x12</NAME>
	<OUTCOME>f</OUTCOME>
	<OUTCOME>t</OUTCOME>
	<PROPERTY>position = (65,780)</PROPERTY>
</VARIABLE>
<VARIABLE TYPE="nature">
	<NAME>x13</NAME>
	<OUTCOME>l</OUTCOME>
	<OUTCOME>g</OUTCOME>
	<PROPERTY>position = (1105,936)</PROPERTY>
</VARIABLE>
<VARIABLE TYPE="nature">
	<NAME>x14</NAME>
	<OUTCOME>f</OUTCOME>
	<OUTCOME>t</OUTCOME>
	<PROPERTY>position = (975,1560)</PROPERTY>
</VARIABLE>
<VARIABLE TYPE="nature">
	<NAME>x15</NAME>
	<OUTCOME>n</OUTCOME>
	<OUTCOME>w</OUTCOME>
	<OUTCOME>b</OUTCOME>
	<PROPERTY>position = (1885,1404)</PROPERTY>
</VARIABLE>
<VARIABLE TYPE="nature">
	<NAME>x16</NAME>
	<OUTCOME>f</OUTCOME>
	<OUTCOME>t</OUTCOME>
	<PROPERTY>position = (130,780)</PROPERTY>
</VARIABLE>
<VARIABLE TYPE="nature">
	<NAME>x17</NAME>
	<OUTCOME>f</OUTCOME>
	<OUTCOME>t</OUTCOME>
	<PROPERTY>position = (325,936)</PROPERTY>
</VARIABLE>
<VARIABLE TYPE="nature">
	<NAME>x18</NAME>
	<OUTCOME>t</OUTCOME>
	<OUTCOME>f</OUTCOME>
	<PROPERTY>position = (845,780)</PROPERTY>
</VARIABLE>
<VARIABLE TYPE="nature">
	<NAME>x19</NAME>
	<OUTCOME>f</OUTCOME>
	<OUTCOME>t</OUTCOME>
	<PROPERTY>position = (1040,1248)</PROPERTY>
</VARIABLE>
<VARIABLE TYPE="nature">
	<NAME>x20</NAME>
	<OUTCOME>f</OUTCOME>
	<OUTCOME>t</OUTCOME>
	<PROPERTY>position = (780,1248)</PROPERTY>
</VARIABLE>
<VARIABLE TYPE="nature">
	<NAME>x21</NAME>
	<OUTCOME>f</OUTCOME>
	<OUTCOME>t</OUTCOME>
	<PROPERTY>position = (1365,624)</PROPERTY>
</VARIABLE>
<VARIABLE TYPE="nature">
	<NAME>x22</NAME>
	<OUTCOME>f</OUTCOME>
	<OUTCOME>t</OUTCOME>
	<PROPERTY>position = (1300,312)</PROPERTY>
</VARIABLE>
<VARIABLE TYPE="nature">
	<NAME>x23</NAME>
	<OUTCOME>f</OUTCOME>
	<OUTCOME>t</OUTCOME>
	<PROPERTY>position = (260,780)</PROPERTY>
</VARIABLE>
<VARIABLE TYPE="nature">
	<NAME>x24</NAME>
	<OUTCOME>f</OUTCOME>
	<OUTCOME>t</OUTCOME>
	<PROPERTY>position = (845,1248)</PROPERTY>
</VARIABLE>
<VARIABLE TYPE="nature">
	<NAME>x25</NAME>
	<OUTCOME>f</OUTCOME>
	<OUTCOME>t</OUTCOME>
	<PROPERTY>position = (1170,1248)</PROPERTY>
</VARIABLE>
<VARIABLE TYPE="nature">
	<NAME>x26</NAME>
	<OUTCOME>t</OUTCOME>
	<OUTCOME>f</OUTCOME>
	<PROPERTY>position = (2210,1404)</PROPERTY>
</VARIABLE>
<VARIABLE TYPE="nature">
	<NAME>x27</NAME>
	<OUTCOME>f</OUTCOME>
	<OUTCOME>t</OUTCOME>
	<PROPERTY>position = (1495,936)</PROPERTY>
</VARIABLE>
<VARIABLE TYPE="nature">
	<NAME>x28</NAME>
	<OUTCOME>f</OUTCOME>
	<OUTCOME>t</OUTCOME>
	<PROPERTY>position = (1625,1248)</PROPERTY>
</VARIABLE>
<VARIABLE TYPE="nature">
	<NAME>x29</NAME>
	<OUTCOME>f</OUTCOME>
	<OUTCOME>t</OUTCOME>
	<PROPERTY>position = (2340,1872)</PROPERTY>
</VARIABLE>
<VARIABLE TYPE="nature">
	<NAME>x30</NAME>
	<OUTCOME>f</OUTCOME>
	<OUTCOME>t</OUTCOME>
	<PROPERTY>position = (1560,1092)</PROPERTY>
</VARIABLE>
<VARIABLE TYPE="nature">
	<NAME>x31</NAME>
	<OUTCOME>f</OUTCOME>
	<OUTCOME>t</OUTCOME>
	<PROPERTY>position = (1105,1092)</PROPERTY>
</VARIABLE>
<VARIABLE TYPE="nature">
	<NAME>x32</NAME>
	<OUTCOME>f</OUTCOME>
	<OUTCOME>t</OUTCOME>
	<PROPERTY>position = (2275,1716)</PROPERTY>
</VARIABLE>
<VARIABLE TYPE="nature">
	<NAME>x33</NAME>
	<OUTCOME>f</OUTCOME>
	<OUTCOME>t</OUTCOME>
	<PROPERTY>position = (1430,780)</PROPERTY>
</VARIABLE>
<VARIABLE TYPE="nature">
	<NAME>x34</NAME>
	<OUTCOME>t</OUTCOME>
	<OUTCOME>f</OUTCOME>
	<PROPERTY>position = (715,936)</PROPERTY>
</VARIABLE>
<VARIABLE TYPE="nature">
	<NAME>x35</NAME>
	<OUTCOME>t</OUTCOME>
	<OUTCOME>f</OUTCOME>
	<PROPERTY>position = (2210,1560)</PROPERTY>
</VARIABLE>
<VARIABLE TYPE="nature">
	<NAME>x36</NAME>
	<OUTCOME>n</OUTCOME>
	<OUTCOME>t</OUTCOME>
	<PROPERTY>position = (1820,1404)</PROPERTY>
</VARIABLE>
<VARIABLE TYPE="nature">
	<NAME>Class</NAME>
	<OUTCOME>won</OUTCOME>
	<OUTCOME>nowin</OUTCOME>
	<PROPERTY>position = (1105,0)</PROPERTY>
</VARIABLE>
<DEFINITION>
<FOR>x1</FOR>
	<GIVEN>Class</GIVEN>
	<GIVEN>x11</GIVEN>
<TABLE>
0.9983258928571429 0.0016741071428571428 
0.7593548387096775 0.24064516129032257 
0.9582881906825569 0.04171180931744312 
0.7813531353135313 0.21864686468646866 
</TABLE>
</DEFINITION>
<DEFINITION>
<FOR>x2</FOR>
	<GIVEN>Class</GIVEN>
	<GIVEN>x7</GIVEN>
<TABLE>
0.89915611814346 0.10084388185654009 
0.9989711934156379 0.00102880658436214 
0.8736654804270463 0.12633451957295375 
0.999271137026239 7.288629737609329E-4 
</TABLE>
</DEFINITION>
<DEFINITION>
<FOR>x3</FOR>
	<GIVEN>Class</GIVEN>
	<GIVEN>x34</GIVEN>
<TABLE>
0.9985265225933202 0.0014734774066797642 
0.947166921898928 0.052833078101071976 
0.984359233097881 0.01564076690211907 
0.8689591078066915 0.13104089219330856 
</TABLE>
</DEFINITION>
<DEFINITION>
<FOR>x4</FOR>
	<GIVEN>Class</GIVEN>
	<GIVEN>x34</GIVEN>
<TABLE>
0.9582514734774067 0.04174852652259332 
0.8154670750382849 0.18453292496171517 
0.9510595358224017 0.04894046417759838 
0.7908921933085502 0.20910780669144982 
</TABLE>
</DEFINITION>
<DEFINITION>
<FOR>x5</FOR>
	<GIVEN>Class</GIVEN>
	<GIVEN>x7</GIVEN>
<TABLE>
0.7877637130801688 0.21223628691983124 
0.42901234567901236 0.5709876543209876 
0.8190984578884934 0.18090154211150652 
0.43513119533527694 0.564868804664723 
</TABLE>
</DEFINITION>
<DEFINITION>
<FOR>x6</FOR>
	<GIVEN>Class</GIVEN>
	<GIVEN>x32</GIVEN>
<TABLE>
0.46575757575757576 0.5342424242424243 
0.9761904761904762 0.023809523809523808 
0.5677348871085215 0.4322651128914785 
0.9967948717948718 0.003205128205128205 
</TABLE>
</DEFINITION>
<DEFINITION>
<FOR>x7</FOR>
	<GIVEN>Class</GIVEN>
	<GIVEN>x8</GIVEN>
<TABLE>
0.8113013698630137 0.1886986301369863 
0.002369668246445498 0.9976303317535545 
0.7288867562380038 0.27111324376199614 
0.17145790554414783 0.8285420944558521 
</TABLE>
</DEFINITION>
<DEFINITION>
<FOR>x8</FOR>
	<GIVEN>Class</GIVEN>
	<GIVEN>x9</GIVEN>
<TABLE>
0.9995458673932789 4.5413260672116256E-4 
0.6307017543859649 0.36929824561403507 
0.9994324631101021 5.675368898978433E-4 
0.2492283950617284 0.7507716049382716 
</TABLE>
</DEFINITION>
<DEFINITION>
<FOR>x9</FOR>
	<GIVEN>Class</GIVEN>
<TABLE>
0.6589820359281438 0.3410179640718563 
0.5762434554973822 0.4237565445026178 
</TABLE>
</DEFINITION>
<DEFINITION>
<FOR>x10</FOR>
	<GIVEN>Class</GIVEN>
	<GIVEN>x22</GIVEN>
<TABLE>
0.8202202989771833 0.17977970102281668 
0.99875 0.00125 
0.45104895104895104 0.548951048951049 
0.8450413223140496 0.15495867768595042 
</TABLE>
</DEFINITION>
<DEFINITION>
<FOR>x11</FOR>
	<GIVEN>Class</GIVEN>
	<GIVEN>x31</GIVEN>
<TABLE>
0.6814329738058552 0.31856702619414484 
0.030831099195710455 0.9691689008042895 
0.6685393258426966 0.33146067415730335 
0.15721649484536082 0.8427835051546392 
</TABLE>
</DEFINITION>
<DEFINITION>
<FOR>x12</FOR>
	<GIVEN>Class</GIVEN>
	<GIVEN>x5</GIVEN>
<TABLE>
0.8410683012259195 0.15893169877408056 
0.995274102079395 0.004725897920604915 
0.8498483316481295 0.15015166835187058 
0.9898148148148148 0.010185185185185186 
</TABLE>
</DEFINITION>
<DEFINITION>
<FOR>x13</FOR>
	<GIVEN>Class</GIVEN>
	<GIVEN>x18</GIVEN>
<TABLE>
0.5891812865497076 0.4108187134502924 
0.9635658914728682 0.03643410852713178 
0.5456484641638225 0.4543515358361775 
0.9565826330532213 0.04341736694677871 
</TABLE>
</DEFINITION>
<DEFINITION>
<FOR>x14</FOR>
	<GIVEN>Class</GIVEN>
	<GIVEN>x1</GIVEN>
<TABLE>
0.9996628455832771 3.3715441672285906E-4 
0.9973404255319149 0.0026595744680851063 
0.9996318114874816 3.681885125184094E-4 
0.9093567251461988 0.09064327485380116 
</TABLE>
</DEFINITION>
<DEFINITION>
<FOR>x15</FOR>
	<GIVEN>Class</GIVEN>
	<GIVEN>x11</GIVEN>
<TABLE>
0.981037367540435 0.01728945900725042 0.0016731734523145567 
0.4687298517085751 0.4300451321727917 0.10122501611863315 
0.9371954520844613 0.023280996210070383 0.03952355170546833 
0.6916735366859027 0.12778235779060182 0.18054410552349548 
</TABLE>
</DEFINITION>
<DEFINITION>
<FOR>x16</FOR>
	<GIVEN>Class</GIVEN>
	<GIVEN>x2</GIVEN>
<TABLE>
0.9996776273372018 3.223726627981947E-4 
0.7708333333333334 0.22916666666666666 
0.9419831223628692 0.0580168776371308 
0.5560747663551402 0.4439252336448598 
</TABLE>
</DEFINITION>
<DEFINITION>
<FOR>x17</FOR>
	<GIVEN>Class</GIVEN>
	<GIVEN>x23</GIVEN>
<TABLE>
0.9915992532669571 0.008400746733042938 
0.3515625 0.6484375 
0.9904119318181818 0.009588068181818182 
0.7479338842975206 0.25206611570247933 
</TABLE>
</DEFINITION>
<DEFINITION>
<FOR>x18</FOR>
	<GIVEN>Class</GIVEN>
	<GIVEN>x2</GIVEN>
<TABLE>
0.6476466795615732 0.3523533204384268 
0.17916666666666667 0.8208333333333333 
0.7985232067510548 0.20147679324894516 
0.3411214953271028 0.6588785046728972 
</TABLE>
</DEFINITION>
<DEFINITION>
<FOR>x19</FOR>
	<GIVEN>Class</GIVEN>
	<GIVEN>x31</GIVEN>
<TABLE>
0.9996147919876733 3.852080123266564E-4 
0.9504021447721179 0.049597855227882036 
0.998876404494382 0.0011235955056179776 
0.961340206185567 0.03865979381443299 
</TABLE>
</DEFINITION>
<DEFINITION>
<FOR>x20</FOR>
	<GIVEN>Class</GIVEN>
	<GIVEN>x31</GIVEN>
<TABLE>
0.9610939907550077 0.038906009244992296 
0.44638069705093836 0.5536193029490617 
0.9119850187265918 0.08801498127340825 
0.43556701030927836 0.5644329896907216 
</TABLE>
</DEFINITION>
<DEFINITION>
<FOR>x21</FOR>
	<GIVEN>Class</GIVEN>
	<GIVEN>x10</GIVEN>
<TABLE>
0.7527739251040222 0.2472260748959778 
0.002183406113537118 0.9978165938864629 
0.9993630573248408 6.369426751592356E-4 
0.9993279569892473 6.720430107526882E-4 
</TABLE>
</DEFINITION>
<DEFINITION>
<FOR>x22</FOR>
	<GIVEN>Class</GIVEN>
	<GIVEN>x9</GIVEN>
<TABLE>
0.9995458673932789 4.5413260672116256E-4 
0.29912280701754385 0.7008771929824561 
0.9994324631101021 5.675368898978433E-4 
0.6273148148148148 0.3726851851851852 
</TABLE>
</DEFINITION>
<DEFINITION>
<FOR>x23</FOR>
	<GIVEN>Class</GIVEN>
	<GIVEN>x5</GIVEN>
<TABLE>
0.9443957968476357 0.05560420315236427 
0.999054820415879 9.45179584120983E-4 
0.878159757330637 0.121840242669363 
0.9990740740740741 9.25925925925926E-4 
</TABLE>
</DEFINITION>
<DEFINITION>
<FOR>x24</FOR>
	<GIVEN>Class</GIVEN>
	<GIVEN>x3</GIVEN>
<TABLE>
0.609480122324159 0.39051987767584095 
0.013888888888888888 0.9861111111111112 
0.6787941787941788 0.3212058212058212 
0.005813953488372093 0.9941860465116279 
</TABLE>
</DEFINITION>
<DEFINITION>
<FOR>x25</FOR>
	<GIVEN>Class</GIVEN>
	<GIVEN>x31</GIVEN>
<TABLE>
0.9996147919876733 3.852080123266564E-4 
0.9932975871313673 0.006702412868632708 
0.998876404494382 0.0011235955056179776 
0.9561855670103093 0.04381443298969072 
</TABLE>
</DEFINITION>
<DEFINITION>
<FOR>x26</FOR>
	<GIVEN>Class</GIVEN>
	<GIVEN>x11</GIVEN>
<TABLE>
0.3978794642857143 0.6021205357142857 
0.9993548387096775 6.451612903225806E-4 
0.5216684723726978 0.4783315276273023 
0.9991749174917491 8.250825082508251E-4 
</TABLE>
</DEFINITION>
<DEFINITION>
<FOR>x27</FOR>
	<GIVEN>Class</GIVEN>
	<GIVEN>x33</GIVEN>
<TABLE>
0.990530303030303 0.00946969696969697 
0.9074074074074074 0.09259259259259259 
0.9992492492492493 7.507507507507507E-4 
0.8476245654692932 0.15237543453070684 
</TABLE>
</DEFINITION>
<DEFINITION>
<FOR>x28</FOR>
	<GIVEN>Class</GIVEN>
	<GIVEN>x30</GIVEN>
<TABLE>
0.9996847414880202 3.1525851197982345E-4 
0.9941176470588236 0.0058823529411764705 
0.9996612466124661 3.3875338753387534E-4 
0.9716981132075472 0.02830188679245283 
</TABLE>
</DEFINITION>
<DEFINITION>
<FOR>x29</FOR>
	<GIVEN>Class</GIVEN>
	<GIVEN>x32</GIVEN>
<TABLE>
0.9996969696969698 3.0303030303030303E-4 
0.9761904761904762 0.023809523809523808 
0.9996358339402768 3.641660597232338E-4 
0.6955128205128205 0.30448717948717946 
</TABLE>
</DEFINITION>
<DEFINITION>
<FOR>x30</FOR>
	<GIVEN>Class</GIVEN>
	<GIVEN>x27</GIVEN>
<TABLE>
0.9566420664206642 0.043357933579335796 
0.6777777777777778 0.32222222222222224 
0.9795991410164638 0.02040085898353615 
0.8143939393939394 0.1856060606060606 
</TABLE>
</DEFINITION>
<DEFINITION>
<FOR>x31</FOR>
	<GIVEN>Class</GIVEN>
	<GIVEN>x13</GIVEN>
<TABLE>
0.6961663947797716 0.3038336052202284 
0.998876404494382 0.0011235955056179776 
0.8058103975535168 0.19418960244648317 
0.9936131386861314 0.006386861313868613 
</TABLE>
</DEFINITION>
<DEFINITION>
<FOR>x32</FOR>
	<GIVEN>Class</GIVEN>
	<GIVEN>x35</GIVEN>
<TABLE>
0.9996237772761475 3.762227238525207E-4 
0.9400584795321637 0.059941520467836254 
0.99950884086444 4.911591355599214E-4 
0.6956947162426614 0.30430528375733856 
</TABLE>
</DEFINITION>
<DEFINITION>
<FOR>x33</FOR>
	<GIVEN>Class</GIVEN>
	<GIVEN>x21</GIVEN>
<TABLE>
0.9571823204419889 0.04281767955801105 
0.4794871794871795 0.5205128205128206 
0.4355366492146597 0.5644633507853403 
0.5 0.5 
</TABLE>
</DEFINITION>
<DEFINITION>
<FOR>x34</FOR>
	<GIVEN>Class</GIVEN>
	<GIVEN>x18</GIVEN>
<TABLE>
0.8484405458089669 0.15155945419103314 
0.22868217054263565 0.7713178294573644 
0.7956484641638225 0.20435153583617746 
0.1638655462184874 0.8361344537815126 
</TABLE>
</DEFINITION>
<DEFINITION>
<FOR>x35</FOR>
	<GIVEN>Class</GIVEN>
	<GIVEN>x26</GIVEN>
<TABLE>
0.698054818744474 0.3019451812555261 
0.9990740740740741 9.25925925925926E-4 
0.5303587856485741 0.4696412143514259 
0.998868778280543 0.0011312217194570137 
</TABLE>
</DEFINITION>
<DEFINITION>
<FOR>x36</FOR>
	<GIVEN>Class</GIVEN>
	<GIVEN>x11</GIVEN>
<TABLE>
0.5396205357142857 0.4603794642857143 
0.9993548387096775 6.451612903225806E-4 
0.5910075839653305 0.40899241603466957 
0.9991749174917491 8.250825082508251E-4 
</TABLE>
</DEFINITION>
<DEFINITION>
<FOR>Class</FOR>
<TABLE>
0.5222083203002815 0.4777916796997185 
</TABLE>
</DEFINITION>
</NETWORK>
</BIF>
