<?xml version="1.0"?>
<!DOCTYPE BIF [
    <!ELEMENT BIF ( NETWORK )*>
      <!ATTLIST BIF VERSION CDATA #REQUIRED>
    <!ELEMENT NETWORK ( NAME, ( PROPERTY | VARIABLE | DEFINITION )* )>
    <!ELEMENT NAME (#PCDATA)>
    <!ELEMENT VARIABLE ( NAME, ( OUTCOME | PROPERTY )* ) >
      <!ATTLIST VARIABLE TYPE (nature|decision|utility) "nature">
    <!ELEMENT OUTCOME (#PCDATA)>
    <!ELEMENT DEFINITION ( FOR | GIVEN | TABLE | PROPERTY )* >
    <!ELEMENT FOR (#PCDATA)>
    <!ELEMENT GIVEN (#PCDATA)>
    <!ELEMENT TABLE (#PCDATA)>
    <!ELEMENT PROPERTY (#PCDATA)>
]>

<BIF VERSION="0.3">
<NETWORK>
<NAME>diabetesDisc-NaiveBayes</NAME>
<VARIABLE TYPE="nature">
    <NAME>A1</NAME>
    <OUTCOME>[0.0-6.5)</OUTCOME>
    <OUTCOME>[6.5-17.0]</OUTCOME>
    <PROPERTY>position = (100, 200)</PROPERTY>
</VARIABLE>
<VARIABLE TYPE="nature">
    <NAME>A2</NAME>
    <OUTCOME>[127.5-199.0]</OUTCOME>
    <OUTCOME>[0.0-127.5)</OUTCOME>
    <PROPERTY>position = (200, 200)</PROPERTY>
</VARIABLE>
<VARIABLE TYPE="nature">
    <NAME>A3</NAME>
    <OUTCOME>[69.0-122.0]</OUTCOME>
    <OUTCOME>[0.0-69.0)</OUTCOME>
    <PROPERTY>position = (300, 200)</PROPERTY>
</VARIABLE>
<VARIABLE TYPE="nature">
    <NAME>A4</NAME>
    <OUTCOME>[31.5-99.0]</OUTCOME>
    <OUTCOME>[23.5-31.5)</OUTCOME>
    <OUTCOME>[0.0-7.5)</OUTCOME>
    <OUTCOME>[7.5-23.5)</OUTCOME>
    <PROPERTY>position = (400, 200)</PROPERTY>
</VARIABLE>
<VARIABLE TYPE="nature">
    <NAME>A5</NAME>
    <OUTCOME>[0.0-14.5)</OUTCOME>
    <OUTCOME>[14.5-121.0)</OUTCOME>
    <OUTCOME>[121.0-846.0]</OUTCOME>
    <PROPERTY>position = (500, 200)</PROPERTY>
</VARIABLE>
<VARIABLE TYPE="nature">
    <NAME>A6</NAME>
    <OUTCOME>[27.35-67.1]</OUTCOME>
    <OUTCOME>[0.0-27.35)</OUTCOME>
    <PROPERTY>position = (600, 200)</PROPERTY>
</VARIABLE>
<VARIABLE TYPE="nature">
    <NAME>A7</NAME>
    <OUTCOME>[0.5275000000000001-2.42]</OUTCOME>
    <OUTCOME>[0.078-0.5275000000000001)</OUTCOME>
    <PROPERTY>position = (700, 200)</PROPERTY>
</VARIABLE>
<VARIABLE TYPE="nature">
    <NAME>A8</NAME>
    <OUTCOME>[28.5-81.0]</OUTCOME>
    <OUTCOME>[21.0-28.5)</OUTCOME>
    <PROPERTY>position = (800, 200)</PROPERTY>
</VARIABLE>
<VARIABLE TYPE="nature">
    <NAME>Class</NAME>
    <OUTCOME>B</OUTCOME>
    <OUTCOME>A</OUTCOME>
    <PROPERTY>position = (450, 50)</PROPERTY>
</VARIABLE>
<DEFINITION>
    <FOR>Class</FOR>
    <TABLE>
        0.349741 0.650259
    </TABLE>
</DEFINITION>
<DEFINITION>
    <FOR>A1</FOR>
    <GIVEN>Class</GIVEN>
    <TABLE>
        0.644444 0.355556
        0.850598 0.149402
    </TABLE>
</DEFINITION>
<DEFINITION>
    <FOR>A2</FOR>
    <GIVEN>Class</GIVEN>
    <TABLE>
        0.648148 0.351852
        0.219124 0.780876
    </TABLE>
</DEFINITION>
<DEFINITION>
    <FOR>A3</FOR>
    <GIVEN>Class</GIVEN>
    <TABLE>
        0.677778 0.322222
        0.535857 0.464143
    </TABLE>
</DEFINITION>
<DEFINITION>
    <FOR>A4</FOR>
    <GIVEN>Class</GIVEN>
    <TABLE>
        0.378676 0.191176 0.330882 0.099265
        0.234127 0.198413 0.279762 0.287698
    </TABLE>
</DEFINITION>
<DEFINITION>
    <FOR>A5</FOR>
    <GIVEN>Class</GIVEN>
    <TABLE>
        0.516605 0.103321 0.380074
        0.471173 0.328032 0.200795
    </TABLE>
</DEFINITION>
<DEFINITION>
    <FOR>A6</FOR>
    <GIVEN>Class</GIVEN>
    <TABLE>
        0.922222 0.077778
        0.651394 0.348606
    </TABLE>
</DEFINITION>
<DEFINITION>
    <FOR>A7</FOR>
    <GIVEN>Class</GIVEN>
    <TABLE>
        0.448148 0.551852
        0.278884 0.721116
    </TABLE>
</DEFINITION>
<DEFINITION>
    <FOR>A8</FOR>
    <GIVEN>Class</GIVEN>
    <TABLE>
        0.733333 0.266667
        0.408367 0.591633
    </TABLE>
</DEFINITION>
</NETWORK>
</BIF>
