<?xml version="1.0"?>
<!-- DTD for the XMLBIF 0.3 format -->
<!DOCTYPE BIF [
	<!ELEMENT BIF ( NETWORK )*>
	      <!ATTLIST BIF VERSION CDATA #REQUIRED>
	<!ELEMENT NETWORK ( NAME, ( PROPERTY | VARIABLE | DEFINITION )* )>
	<!ELEMENT NAME (#PCDATA)>
	<!ELEMENT VARIABLE ( NAME, ( OUTCOME |  PROPERTY )* ) >
	      <!ATTLIST VARIABLE TYPE (nature|decision|utility) "nature">
	<!ELEMENT OUTCOME (#PCDATA)>
	<!ELEMENT DEFINITION ( FOR | GIVEN | TABLE | PROPERTY )* >
	<!ELEMENT FOR (#PCDATA)>
	<!ELEMENT GIVEN (#PCDATA)>
	<!ELEMENT TABLE (#PCDATA)>
	<!ELEMENT PROPERTY (#PCDATA)>
]>


<BIF VERSION="0.3">
<NETWORK>
<NAME>heartDisc-weka.filters.unsupervised.attribute.ReplaceMissingValues</NAME>
<VARIABLE TYPE="nature">
	<NAME>age</NAME>
	<OUTCOME>[54.5-77.0]</OUTCOME>
	<OUTCOME>[29.0-54.5)</OUTCOME>
	<PROPERTY>position = (342,468)</PROPERTY>
</VARIABLE>
<VARIABLE TYPE="nature">
	<NAME>sex</NAME>
	<OUTCOME>[0.5-1.0]</OUTCOME>
	<OUTCOME>[0.0-0.5)</OUTCOME>
	<PROPERTY>position = (228,624)</PROPERTY>
</VARIABLE>
<VARIABLE TYPE="nature">
	<NAME>chest</NAME>
	<OUTCOME>[3.5-4.0]</OUTCOME>
	<OUTCOME>[1.0-3.5)</OUTCOME>
	<PROPERTY>position = (1026,624)</PROPERTY>
</VARIABLE>
<VARIABLE TYPE="nature">
	<NAME>preasure</NAME>
	<OUTCOME>[107.0-143.0)</OUTCOME>
	<OUTCOME>[143.0-200.0]</OUTCOME>
	<OUTCOME>[100.5-107.0)</OUTCOME>
	<OUTCOME>[94.0-100.5)</OUTCOME>
	<PROPERTY>position = (342,624)</PROPERTY>
</VARIABLE>
<VARIABLE TYPE="nature">
	<NAME>cholestoral</NAME>
	<OUTCOME>[245.5-564.0]</OUTCOME>
	<OUTCOME>[126.0-245.5)</OUTCOME>
	<PROPERTY>position = (114,780)</PROPERTY>
</VARIABLE>
<VARIABLE TYPE="nature">
	<NAME>bloodsugar</NAME>
	<OUTCOME>[0.0-0.5)</OUTCOME>
	<OUTCOME>[0.5-1.0]</OUTCOME>
	<PROPERTY>position = (1140,780)</PROPERTY>
</VARIABLE>
<VARIABLE TYPE="nature">
	<NAME>electro</NAME>
	<OUTCOME>[0.5-2.0]</OUTCOME>
	<OUTCOME>[0.0-0.5)</OUTCOME>
	<PROPERTY>position = (684,936)</PROPERTY>
</VARIABLE>
<VARIABLE TYPE="nature">
	<NAME>heartrate</NAME>
	<OUTCOME>[71.0-147.5)</OUTCOME>
	<OUTCOME>[147.5-202.0]</OUTCOME>
	<PROPERTY>position = (684,312)</PROPERTY>
</VARIABLE>
<VARIABLE TYPE="nature">
	<NAME>angina</NAME>
	<OUTCOME>[0.0-0.5)</OUTCOME>
	<OUTCOME>[0.5-1.0]</OUTCOME>
	<PROPERTY>position = (1026,468)</PROPERTY>
</VARIABLE>
<VARIABLE TYPE="nature">
	<NAME>oldpeak</NAME>
	<OUTCOME>[1.7000000000000002-6.2]</OUTCOME>
	<OUTCOME>[0.0-1.7000000000000002)</OUTCOME>
	<PROPERTY>position = (570,312)</PROPERTY>
</VARIABLE>
<VARIABLE TYPE="nature">
	<NAME>slope</NAME>
	<OUTCOME>[1.5-3.0]</OUTCOME>
	<OUTCOME>[1.0-1.5)</OUTCOME>
	<PROPERTY>position = (684,156)</PROPERTY>
</VARIABLE>
<VARIABLE TYPE="nature">
	<NAME>vessels</NAME>
	<OUTCOME>[0.5-3.0]</OUTCOME>
	<OUTCOME>[0.0-0.5)</OUTCOME>
	<PROPERTY>position = (456,624)</PROPERTY>
</VARIABLE>
<VARIABLE TYPE="nature">
	<NAME>thal</NAME>
	<OUTCOME>[3.0-4.5)</OUTCOME>
	<OUTCOME>[4.5-7.0]</OUTCOME>
	<PROPERTY>position = (570,780)</PROPERTY>
</VARIABLE>
<VARIABLE TYPE="nature">
	<NAME>class</NAME>
	<OUTCOME>B</OUTCOME>
	<OUTCOME>A</OUTCOME>
	<PROPERTY>position = (684,0)</PROPERTY>
</VARIABLE>
<DEFINITION>
<FOR>age</FOR>
	<GIVEN>class</GIVEN>
	<GIVEN>heartrate</GIVEN>
<TABLE>
0.6948051948051948 0.3051948051948052 
0.6111111111111112 0.3888888888888889 
0.625 0.375 
0.3146551724137931 0.6853448275862069 
</TABLE>
</DEFINITION>
<DEFINITION>
<FOR>sex</FOR>
	<GIVEN>class</GIVEN>
	<GIVEN>age</GIVEN>
<TABLE>
0.7716049382716049 0.22839506172839505 
0.9390243902439024 0.06097560975609756 
0.4661016949152542 0.5338983050847458 
0.6075268817204301 0.3924731182795699 
</TABLE>
</DEFINITION>
<DEFINITION>
<FOR>chest</FOR>
	<GIVEN>class</GIVEN>
	<GIVEN>angina</GIVEN>
<TABLE>
0.5727272727272728 0.42727272727272725 
0.9029850746268657 0.09701492537313433 
0.22265625 0.77734375 
0.4375 0.5625 
</TABLE>
</DEFINITION>
<DEFINITION>
<FOR>preasure</FOR>
	<GIVEN>class</GIVEN>
	<GIVEN>age</GIVEN>
<TABLE>
0.6280487804878049 0.3353658536585366 0.006097560975609756 0.03048780487804878 
0.8452380952380952 0.13095238095238096 0.011904761904761904 0.011904761904761904 
0.625 0.2916666666666667 0.058333333333333334 0.025 
0.8351063829787234 0.06914893617021277 0.05851063829787234 0.03723404255319149 
</TABLE>
</DEFINITION>
<DEFINITION>
<FOR>cholestoral</FOR>
	<GIVEN>class</GIVEN>
	<GIVEN>sex</GIVEN>
<TABLE>
0.5594059405940595 0.4405940594059406 
0.7857142857142857 0.21428571428571427 
0.31547619047619047 0.6845238095238095 
0.5220588235294118 0.47794117647058826 
</TABLE>
</DEFINITION>
<DEFINITION>
<FOR>bloodsugar</FOR>
	<GIVEN>class</GIVEN>
	<GIVEN>chest</GIVEN>
<TABLE>
0.8641304347826086 0.1358695652173913 
0.8166666666666667 0.18333333333333332 
0.9615384615384616 0.038461538461538464 
0.8008849557522124 0.19911504424778761 
</TABLE>
</DEFINITION>
<DEFINITION>
<FOR>electro</FOR>
	<GIVEN>class</GIVEN>
	<GIVEN>cholestoral</GIVEN>
<TABLE>
0.6917808219178082 0.3082191780821918 
0.5 0.5 
0.5241935483870968 0.47580645161290325 
0.37222222222222223 0.6277777777777778 
</TABLE>
</DEFINITION>
<DEFINITION>
<FOR>heartrate</FOR>
	<GIVEN>class</GIVEN>
	<GIVEN>slope</GIVEN>
<TABLE>
0.7584269662921348 0.24157303370786518 
0.2878787878787879 0.7121212121212122 
0.36792452830188677 0.6320754716981132 
0.16666666666666666 0.8333333333333334 
</TABLE>
</DEFINITION>
<DEFINITION>
<FOR>angina</FOR>
	<GIVEN>class</GIVEN>
	<GIVEN>heartrate</GIVEN>
<TABLE>
0.3181818181818182 0.6818181818181818 
0.6777777777777778 0.32222222222222224 
0.7638888888888888 0.2361111111111111 
0.8663793103448276 0.1336206896551724 
</TABLE>
</DEFINITION>
<DEFINITION>
<FOR>oldpeak</FOR>
	<GIVEN>class</GIVEN>
	<GIVEN>slope</GIVEN>
<TABLE>
0.5674157303370787 0.43258426966292135 
0.10606060606060606 0.8939393939393939 
0.2169811320754717 0.7830188679245284 
0.03535353535353535 0.9646464646464646 
</TABLE>
</DEFINITION>
<DEFINITION>
<FOR>slope</FOR>
	<GIVEN>class</GIVEN>
<TABLE>
0.731404958677686 0.26859504132231404 
0.347682119205298 0.652317880794702 
</TABLE>
</DEFINITION>
<DEFINITION>
<FOR>vessels</FOR>
	<GIVEN>class</GIVEN>
	<GIVEN>age</GIVEN>
<TABLE>
0.7469135802469136 0.25308641975308643 
0.5 0.5 
0.2796610169491525 0.7203389830508474 
0.15591397849462366 0.8440860215053764 
</TABLE>
</DEFINITION>
<DEFINITION>
<FOR>thal</FOR>
	<GIVEN>class</GIVEN>
	<GIVEN>sex</GIVEN>
<TABLE>
0.24257425742574257 0.7574257425742574 
0.4523809523809524 0.5476190476190477 
0.6488095238095238 0.35119047619047616 
0.9632352941176471 0.03676470588235294 
</TABLE>
</DEFINITION>
<DEFINITION>
<FOR>class</FOR>
<TABLE>
0.4446494464944649 0.5553505535055351 
</TABLE>
</DEFINITION>
</NETWORK>
</BIF>
