<?xml version="1.0"?>
<!-- DTD for the XMLBIF 0.3 format -->
<!DOCTYPE BIF [
	<!ELEMENT BIF ( NETWORK )*>
	      <!ATTLIST BIF VERSION CDATA #REQUIRED>
	<!ELEMENT NETWORK ( NAME, ( PROPERTY | VARIABLE | DEFINITION )* )>
	<!ELEMENT NAME (#PCDATA)>
	<!ELEMENT VARIABLE ( NAME, ( OUTCOME |  PROPERTY )* ) >
	      <!ATTLIST VARIABLE TYPE (nature|decision|utility) "nature">
	<!ELEMENT OUTCOME (#PCDATA)>
	<!ELEMENT DEFINITION ( FOR | GIVEN | TABLE | PROPERTY )* >
	<!ELEMENT FOR (#PCDATA)>
	<!ELEMENT GIVEN (#PCDATA)>
	<!ELEMENT TABLE (#PCDATA)>
	<!ELEMENT PROPERTY (#PCDATA)>
]>


<BIF VERSION="0.3">
<NETWORK>
<NAME>pimaDisc-weka.filters.unsupervised.attribute.ReplaceMissingValues</NAME>
<VARIABLE TYPE="nature">
	<NAME>Pregnant</NAME>
	<OUTCOME>[0.0-6.5)</OUTCOME>
	<OUTCOME>[6.5-17.0]</OUTCOME>
	<PROPERTY>position = (0,468)</PROPERTY>
</VARIABLE>
<VARIABLE TYPE="nature">
	<NAME>glucose</NAME>
	<OUTCOME>[127.5-199.0]</OUTCOME>
	<OUTCOME>[0.0-127.5)</OUTCOME>
	<PROPERTY>position = (480,468)</PROPERTY>
</VARIABLE>
<VARIABLE TYPE="nature">
	<NAME>Diastolic</NAME>
	<OUTCOME>[69.0-122.0]</OUTCOME>
	<OUTCOME>[0.0-69.0)</OUTCOME>
	<PROPERTY>position = (192,468)</PROPERTY>
</VARIABLE>
<VARIABLE TYPE="nature">
	<NAME>Triceps</NAME>
	<OUTCOME>[31.5-99.0]</OUTCOME>
	<OUTCOME>[0.0-7.5)</OUTCOME>
	<OUTCOME>[23.5-31.5)</OUTCOME>
	<OUTCOME>[7.5-23.5)</OUTCOME>
	<PROPERTY>position = (288,156)</PROPERTY>
</VARIABLE>
<VARIABLE TYPE="nature">
	<NAME>Hour</NAME>
	<OUTCOME>[121.0-846.0]</OUTCOME>
	<OUTCOME>[0.0-14.5)</OUTCOME>
	<OUTCOME>[14.5-121.0)</OUTCOME>
	<PROPERTY>position = (576,312)</PROPERTY>
</VARIABLE>
<VARIABLE TYPE="nature">
	<NAME>Body</NAME>
	<OUTCOME>[27.35-67.1]</OUTCOME>
	<OUTCOME>[0.0-27.35)</OUTCOME>
	<PROPERTY>position = (192,312)</PROPERTY>
</VARIABLE>
<VARIABLE TYPE="nature">
	<NAME>Diabetes</NAME>
	<OUTCOME>[0.078-0.5275000000000001)</OUTCOME>
	<OUTCOME>[0.5275000000000001-2.42]</OUTCOME>
	<PROPERTY>position = (576,468)</PROPERTY>
</VARIABLE>
<VARIABLE TYPE="nature">
	<NAME>Age</NAME>
	<OUTCOME>[28.5-81.0]</OUTCOME>
	<OUTCOME>[21.0-28.5)</OUTCOME>
	<PROPERTY>position = (96,312)</PROPERTY>
</VARIABLE>
<VARIABLE TYPE="nature">
	<NAME>Class</NAME>
	<OUTCOME>B</OUTCOME>
	<OUTCOME>A</OUTCOME>
	<PROPERTY>position = (288,0)</PROPERTY>
</VARIABLE>
<DEFINITION>
<FOR>Pregnant</FOR>
	<GIVEN>Class</GIVEN>
	<GIVEN>Age</GIVEN>
<TABLE>
0.5227272727272727 0.4772727272727273 
0.9791666666666666 0.020833333333333332 
0.6414634146341464 0.35853658536585364 
0.9949494949494949 0.005050505050505051 
</TABLE>
</DEFINITION>
<DEFINITION>
<FOR>glucose</FOR>
	<GIVEN>Class</GIVEN>
	<GIVEN>Hour</GIVEN>
<TABLE>
0.7815533980582524 0.21844660194174756 
0.5821428571428572 0.41785714285714287 
0.48214285714285715 0.5178571428571429 
0.4603960396039604 0.5396039603960396 
0.22151898734177214 0.7784810126582279 
0.0696969696969697 0.9303030303030303 
</TABLE>
</DEFINITION>
<DEFINITION>
<FOR>Diastolic</FOR>
	<GIVEN>Class</GIVEN>
	<GIVEN>Age</GIVEN>
<TABLE>
0.73989898989899 0.2601010101010101 
0.5069444444444444 0.4930555555555556 
0.7097560975609756 0.29024390243902437 
0.4158249158249158 0.5841750841750841 
</TABLE>
</DEFINITION>
<DEFINITION>
<FOR>Triceps</FOR>
	<GIVEN>Class</GIVEN>
<TABLE>
0.37962962962962965 0.3314814814814815 0.19074074074074074 0.09814814814814815 
0.2340637450199203 0.2798804780876494 0.19820717131474103 0.28784860557768926 
</TABLE>
</DEFINITION>
<DEFINITION>
<FOR>Hour</FOR>
	<GIVEN>Class</GIVEN>
	<GIVEN>Triceps</GIVEN>
<TABLE>
0.5845410628019324 0.26570048309178745 0.1497584541062802 
0.016574585635359115 0.9779005524861878 0.0055248618784530384 
0.5047619047619047 0.3523809523809524 0.14285714285714285 
0.5636363636363636 0.23636363636363636 0.2 
0.38396624472573837 0.2489451476793249 0.3670886075949367 
0.01060070671378092 0.9858657243816255 0.0035335689045936395 
0.263681592039801 0.31343283582089554 0.4228855721393035 
0.1958762886597938 0.25773195876288657 0.5463917525773195 
</TABLE>
</DEFINITION>
<DEFINITION>
<FOR>Body</FOR>
	<GIVEN>Class</GIVEN>
	<GIVEN>Triceps</GIVEN>
<TABLE>
0.9757281553398058 0.024271844660194174 
0.8833333333333333 0.11666666666666667 
0.9519230769230769 0.04807692307692308 
0.7592592592592593 0.24074074074074073 
0.9194915254237288 0.08050847457627118 
0.5141843971631206 0.4858156028368794 
0.845 0.155 
0.43103448275862066 0.5689655172413793 
</TABLE>
</DEFINITION>
<DEFINITION>
<FOR>Diabetes</FOR>
	<GIVEN>Class</GIVEN>
	<GIVEN>Hour</GIVEN>
<TABLE>
0.46116504854368934 0.5388349514563107 
0.6321428571428571 0.3678571428571429 
0.48214285714285715 0.5178571428571429 
0.6089108910891089 0.3910891089108911 
0.7784810126582279 0.22151898734177214 
0.706060606060606 0.29393939393939394 
</TABLE>
</DEFINITION>
<DEFINITION>
<FOR>Age</FOR>
	<GIVEN>Class</GIVEN>
	<GIVEN>Triceps</GIVEN>
<TABLE>
0.6553398058252428 0.3446601941747573 
0.7833333333333333 0.21666666666666667 
0.7788461538461539 0.22115384615384615 
0.7592592592592593 0.24074074074074073 
0.461864406779661 0.538135593220339 
0.6205673758865248 0.37943262411347517 
0.335 0.665 
0.2103448275862069 0.7896551724137931 
</TABLE>
</DEFINITION>
<DEFINITION>
<FOR>Class</FOR>
<TABLE>
0.3491547464239272 0.6508452535760728 
</TABLE>
</DEFINITION>
</NETWORK>
</BIF>
