<?xml version="1.0"?>
<!-- DTD for the XMLBIF 0.3 format -->
<!DOCTYPE BIF [
	<!ELEMENT BIF ( NETWORK )*>
	      <!ATTLIST BIF VERSION CDATA #REQUIRED>
	<!ELEMENT NETWORK ( NAME, ( PROPERTY | VARIABLE | DEFINITION )* )>
	<!ELEMENT NAME (#PCDATA)>
	<!ELEMENT VARIABLE ( NAME, ( OUTCOME |  PROPERTY )* ) >
	      <!ATTLIST VARIABLE TYPE (nature|decision|utility) "nature">
	<!ELEMENT OUTCOME (#PCDATA)>
	<!ELEMENT DEFINITION ( FOR | GIVEN | TABLE | PROPERTY )* >
	<!ELEMENT FOR (#PCDATA)>
	<!ELEMENT GIVEN (#PCDATA)>
	<!ELEMENT TABLE (#PCDATA)>
	<!ELEMENT PROPERTY (#PCDATA)>
]>


<BIF VERSION="0.3">
<NETWORK>
<NAME>tic-tac-toe-weka.filters.unsupervised.attribute.ReplaceMissingValues</NAME>
<VARIABLE TYPE="nature">
	<NAME>top-left-square</NAME>
	<OUTCOME>x</OUTCOME>
	<OUTCOME>o</OUTCOME>
	<OUTCOME>b</OUTCOME>
	<PROPERTY>position = (424,312)</PROPERTY>
</VARIABLE>
<VARIABLE TYPE="nature">
	<NAME>top-middle-square</NAME>
	<OUTCOME>x</OUTCOME>
	<OUTCOME>o</OUTCOME>
	<OUTCOME>b</OUTCOME>
	<PROPERTY>position = (1060,468)</PROPERTY>
</VARIABLE>
<VARIABLE TYPE="nature">
	<NAME>top-right-square</NAME>
	<OUTCOME>x</OUTCOME>
	<OUTCOME>o</OUTCOME>
	<OUTCOME>b</OUTCOME>
	<PROPERTY>position = (636,936)</PROPERTY>
</VARIABLE>
<VARIABLE TYPE="nature">
	<NAME>middle-left-square</NAME>
	<OUTCOME>x</OUTCOME>
	<OUTCOME>o</OUTCOME>
	<OUTCOME>b</OUTCOME>
	<PROPERTY>position = (1484,780)</PROPERTY>
</VARIABLE>
<VARIABLE TYPE="nature">
	<NAME>middle-middle-square</NAME>
	<OUTCOME>o</OUTCOME>
	<OUTCOME>b</OUTCOME>
	<OUTCOME>x</OUTCOME>
	<PROPERTY>position = (636,468)</PROPERTY>
</VARIABLE>
<VARIABLE TYPE="nature">
	<NAME>middle-right-square</NAME>
	<OUTCOME>o</OUTCOME>
	<OUTCOME>b</OUTCOME>
	<OUTCOME>x</OUTCOME>
	<PROPERTY>position = (636,156)</PROPERTY>
</VARIABLE>
<VARIABLE TYPE="nature">
	<NAME>bottom-left-square</NAME>
	<OUTCOME>x</OUTCOME>
	<OUTCOME>o</OUTCOME>
	<OUTCOME>b</OUTCOME>
	<PROPERTY>position = (1060,312)</PROPERTY>
</VARIABLE>
<VARIABLE TYPE="nature">
	<NAME>bottom-middle-square</NAME>
	<OUTCOME>o</OUTCOME>
	<OUTCOME>x</OUTCOME>
	<OUTCOME>b</OUTCOME>
	<PROPERTY>position = (212,468)</PROPERTY>
</VARIABLE>
<VARIABLE TYPE="nature">
	<NAME>bottom-right-square</NAME>
	<OUTCOME>o</OUTCOME>
	<OUTCOME>x</OUTCOME>
	<OUTCOME>b</OUTCOME>
	<PROPERTY>position = (1272,624)</PROPERTY>
</VARIABLE>
<VARIABLE TYPE="nature">
	<NAME>Classs</NAME>
	<OUTCOME>positive</OUTCOME>
	<OUTCOME>negative</OUTCOME>
	<PROPERTY>position = (848,0)</PROPERTY>
</VARIABLE>
<DEFINITION>
<FOR>top-left-square</FOR>
	<GIVEN>Classs</GIVEN>
	<GIVEN>middle-right-square</GIVEN>
<TABLE>
0.5878524945770065 0.21908893709327548 0.19305856832971802 
0.5677233429394812 0.2564841498559078 0.17579250720461095 
0.27593818984547464 0.4216335540838852 0.30242825607064017 
0.5121951219512195 0.21951219512195122 0.2682926829268293 
0.3081761006289308 0.5345911949685535 0.15723270440251572 
0.3074433656957929 0.5339805825242718 0.15857605177993528 
</TABLE>
</DEFINITION>
<DEFINITION>
<FOR>top-middle-square</FOR>
	<GIVEN>Classs</GIVEN>
	<GIVEN>bottom-left-square</GIVEN>
<TABLE>
0.21079258010118043 0.45699831365935917 0.33220910623946037 
0.5013123359580053 0.2650918635170604 0.2335958005249344 
0.47735191637630664 0.31010452961672474 0.21254355400696864 
0.3815261044176707 0.42168674698795183 0.19678714859437751 
0.559322033898305 0.15254237288135594 0.288135593220339 
0.3798449612403101 0.4263565891472868 0.1937984496124031 
</TABLE>
</DEFINITION>
<DEFINITION>
<FOR>top-right-square</FOR>
	<GIVEN>Classs</GIVEN>
	<GIVEN>middle-left-square</GIVEN>
<TABLE>
0.27593818984547464 0.4216335540838852 0.30242825607064017 
0.5878524945770065 0.21908893709327548 0.19305856832971802 
0.5677233429394812 0.2564841498559078 0.17579250720461095 
0.3074433656957929 0.5339805825242718 0.15857605177993528 
0.5121951219512195 0.21951219512195122 0.2682926829268293 
0.3081761006289308 0.5345911949685535 0.15723270440251572 
</TABLE>
</DEFINITION>
<DEFINITION>
<FOR>middle-left-square</FOR>
	<GIVEN>Classs</GIVEN>
	<GIVEN>bottom-right-square</GIVEN>
<TABLE>
0.5013123359580053 0.2650918635170604 0.2335958005249344 
0.21079258010118043 0.45699831365935917 0.33220910623946037 
0.47735191637630664 0.31010452961672474 0.21254355400696864 
0.559322033898305 0.15254237288135594 0.288135593220339 
0.3815261044176707 0.42168674698795183 0.19678714859437751 
0.3798449612403101 0.4263565891472868 0.1937984496124031 
</TABLE>
</DEFINITION>
<DEFINITION>
<FOR>middle-middle-square</FOR>
	<GIVEN>Classs</GIVEN>
	<GIVEN>top-left-square</GIVEN>
<TABLE>
0.2951096121416526 0.2175379426644182 0.4873524451939292 
0.17585301837270342 0.14960629921259844 0.6745406824146981 
0.1986062717770035 0.14285714285714285 0.6585365853658537 
0.6546184738955824 0.11646586345381527 0.2289156626506024 
0.47796610169491527 0.17966101694915254 0.3423728813559322 
0.6434108527131783 0.13178294573643412 0.2248062015503876 
</TABLE>
</DEFINITION>
<DEFINITION>
<FOR>middle-right-square</FOR>
	<GIVEN>Classs</GIVEN>
<TABLE>
0.36573705179282867 0.2749003984063745 0.3593625498007968 
0.30434782608695654 0.2353823088455772 0.46026986506746626 
</TABLE>
</DEFINITION>
<DEFINITION>
<FOR>bottom-left-square</FOR>
	<GIVEN>Classs</GIVEN>
	<GIVEN>middle-right-square</GIVEN>
<TABLE>
0.5878524945770065 0.21908893709327548 0.19305856832971802 
0.5677233429394812 0.2564841498559078 0.17579250720461095 
0.27593818984547464 0.4216335540838852 0.30242825607064017 
0.5121951219512195 0.21951219512195122 0.2682926829268293 
0.3081761006289308 0.5345911949685535 0.15723270440251572 
0.3074433656957929 0.5339805825242718 0.15857605177993528 
</TABLE>
</DEFINITION>
<DEFINITION>
<FOR>bottom-middle-square</FOR>
	<GIVEN>Classs</GIVEN>
	<GIVEN>top-left-square</GIVEN>
<TABLE>
0.45699831365935917 0.21079258010118043 0.33220910623946037 
0.2650918635170604 0.5013123359580053 0.2335958005249344 
0.31010452961672474 0.47735191637630664 0.21254355400696864 
0.42168674698795183 0.3815261044176707 0.19678714859437751 
0.15254237288135594 0.559322033898305 0.288135593220339 
0.4263565891472868 0.3798449612403101 0.1937984496124031 
</TABLE>
</DEFINITION>
<DEFINITION>
<FOR>bottom-right-square</FOR>
	<GIVEN>Classs</GIVEN>
	<GIVEN>top-middle-square</GIVEN>
<TABLE>
0.4216335540838852 0.27593818984547464 0.30242825607064017 
0.21908893709327548 0.5878524945770065 0.19305856832971802 
0.2564841498559078 0.5677233429394812 0.17579250720461095 
0.5339805825242718 0.3074433656957929 0.15857605177993528 
0.21951219512195122 0.5121951219512195 0.2682926829268293 
0.5345911949685535 0.3081761006289308 0.15723270440251572 
</TABLE>
</DEFINITION>
<DEFINITION>
<FOR>Classs</FOR>
<TABLE>
0.6532846715328468 0.3467153284671533 
</TABLE>
</DEFINITION>
</NETWORK>
</BIF>
